{
    "layers": [
        {
            "W": [
                [
                    0.6187724191796389,
                    1.849900489295528,
                    1.7972295452393188,
                    0.4489105689541025,
                    0.8124944588150576,
                    -1.5472772630560907,
                    0.12110702451872384,
                    1.1503722366913898,
                    -2.4344337916123426,
                    0.6746313959224927,
                    0.6392264517294813,
                    -1.3625317821100686,
                    -1.0372955021495835,
                    -0.04181061172050629,
                    0.20923841878696675,
                    -4.366248097840966,
                    2.2723080225374095,
                    -0.3328010603448856,
                    -1.0370112598007812,
                    -1.4062707444503961,
                    0.30661741391759806,
                    -0.19330803845644934,
                    0.6993606728155602,
                    3.6280896421968465,
                    0.9636003736548348,
                    0.7324092009954339,
                    -4.236147611900978,
                    -1.5498549719418155,
                    0.4617235160271503,
                    -0.5808897234952916,
                    -0.5124548533383189,
                    -1.4603572359657042
                ],
                [
                    -0.4706454682012601,
                    -2.5103158159078593,
                    0.38789419766132394,
                    -3.699479920431478,
                    -3.1368009907581396,
                    -1.1451111708111226,
                    -0.05370980556039053,
                    2.7103581034781463,
                    -2.0825161975919415,
                    -0.8565556448823419,
                    2.259537416005895,
                    -0.23350857668154182,
                    0.2591339475096963,
                    2.52085462164585,
                    -0.3349740029903341,
                    -1.5391456958338159,
                    -0.9246511367002633,
                    0.30148556549058214,
                    -7.269672715870414,
                    2.1907497355625862,
                    1.0272006333710508,
                    -1.1912707704980394,
                    1.3212306666929123,
                    -0.2806894084009207,
                    -1.0003881084084978,
                    0.28987693539897225,
                    1.8631966127223074,
                    0.6087881476629589,
                    -1.8145076576091348,
                    -0.0036836828724675823,
                    0.3706884251160909,
                    0.566371755059695
                ],
                [
                    -1.4751450010819098,
                    -2.9071213088654897,
                    1.0536874191811247,
                    5.696329136497556,
                    -2.952772687453821,
                    0.13015221691998338,
                    -0.378810456226967,
                    0.062383114667584894,
                    -1.2523966012473122,
                    2.9422412514841176,
                    -1.8249937680232564,
                    -1.3299834829876955,
                    3.863766191123475,
                    1.9951397045343295,
                    -2.669214627833989,
                    -0.06355170955350228,
                    -0.8729626689908927,
                    -0.39051962115822797,
                    -5.510629984884122,
                    -0.2340640677090062,
                    -0.07884484604986,
                    1.3785802950522748,
                    -3.6733866601216674,
                    2.4539915182426504,
                    1.252157146997783,
                    0.6070723943467677,
                    -0.026388954365716276,
                    -0.20915453984343155,
                    1.5983865850269623,
                    -2.4610320529823215,
                    -0.9269762634358772,
                    -0.6273271808375614
                ],
                [
                    -0.456159548434287,
                    -1.3514879936517563,
                    -0.9626008492028908,
                    1.58357713220112,
                    2.7404578666550385,
                    0.0881752908175883,
                    0.7507494702486566,
                    5.89473912684197,
                    -0.03779079465765461,
                    -1.1689595170036242,
                    -1.924717602242054,
                    -1.1264400404844446,
                    -2.3180873924122185,
                    0.6966494417374274,
                    -0.5401765324464527,
                    2.1225281808541494,
                    0.7727277789041355,
                    3.4867911962594507,
                    2.515843712073216,
                    -0.28356798535184635,
                    1.5900339898922333,
                    -1.546028474955527,
                    0.02848397528918675,
                    0.20551234822637895,
                    -1.811534464927255,
                    -1.4549584647839169,
                    -0.42053648458108417,
                    -1.1181776784759083,
                    -0.4241127459291413,
                    -0.6589566581988741,
                    -3.1400176323734486,
                    1.2438899485144759
                ],
                [
                    0.5352323426195883,
                    -4.3293801556201235,
                    -3.1066716273173074,
                    -1.4316170582892223,
                    -0.45910680919990227,
                    0.20057770192357754,
                    1.712057414792007,
                    -0.46490070283588886,
                    -0.11746936080537208,
                    -1.418296752216122,
                    -3.249849356936983,
                    2.474571336056792,
                    0.20113271371957048,
                    0.2036010684485423,
                    -1.1834734384254504,
                    -0.8492047859432373,
                    -0.31418206745653204,
                    0.4310406240947973,
                    1.1678380828670305,
                    -0.5296339835900561,
                    -1.7609434475041001,
                    -0.7011875748072193,
                    -0.1817502994988481,
                    -0.5646359364339287,
                    0.9811438693827891,
                    -0.2766240918683331,
                    -0.41834817207891384,
                    -0.6520662921892583,
                    -5.591973092670347,
                    -0.4032866383431451,
                    -1.8706246498447194,
                    -1.672217720052857
                ],
                [
                    -0.9012343588480664,
                    -5.217614078012327,
                    -1.3930920645974398,
                    1.5429232505843344,
                    0.3643925909297172,
                    0.8942289673261031,
                    -3.1018936934300942,
                    -0.1441455580054951,
                    0.7413746948944275,
                    -0.8761738040062256,
                    0.9704206846660199,
                    0.7287253826480404,
                    0.44440213972235365,
                    0.5357653127499397,
                    -3.1563037710009656,
                    0.8848894026267111,
                    -1.0215265048688158,
                    -1.5481228690409061,
                    -0.6314891850707715,
                    2.5318387138930123,
                    3.180585098607599,
                    -1.7463647655551418,
                    -0.7284777212926818,
                    2.0358015261536777,
                    -3.4879653213104738,
                    -0.6758922732921011,
                    -0.6504210989897515,
                    -0.02913008726464548,
                    0.3954259857796291,
                    0.3072359403069685,
                    -3.3000649034026313,
                    -1.0898303970388747
                ],
                [
                    -0.17018066200860527,
                    0.1665108790994523,
                    0.35655204022166703,
                    -0.2491594990209957,
                    0.9880290342396119,
                    -3.2783433613163684,
                    -2.947229128157914,
                    -1.7558952593116255,
                    0.11879228886432622,
                    -2.9162350663432948,
                    1.121045787337362,
                    -2.0320416130053074,
                    2.0657742570315567,
                    2.44452235122584,
                    0.4133168373151789,
                    -2.5705681959539715,
                    -2.89038260286002,
                    4.298892847851304,
                    -1.2343454187464709,
                    -0.7994457770406107,
                    6.407861895589524,
                    2.053103721054431,
                    1.444473278740411,
                    -0.3997913954669357,
                    -0.3950356591428024,
                    -2.9616721512518254,
                    2.590933364326591,
                    0.9139637465427474,
                    0.40774462218365676,
                    3.0577744966351927,
                    1.0074457904895109,
                    2.844594566606033
                ],
                [
                    -1.8335242543753254,
                    1.6488658180406626,
                    -0.5445133620389128,
                    1.3906192913073148,
                    -2.665049767585072,
                    2.228818969101373,
                    2.0264807195701247,
                    1.3695853250937313,
                    -2.845548643143816,
                    0.2136262888985109,
                    -2.5334874718736984,
                    2.628693682763088,
                    -0.021554090885574487,
                    -2.117569286227563,
                    0.10264570651568548,
                    -3.0800716070420036,
                    7.341976538241439,
                    0.9881458727364724,
                    2.7718835033772917,
                    1.3597878846594917,
                    0.7315882695254794,
                    -0.04061220716704085,
                    2.0867997440058117,
                    1.315656775423526,
                    0.22390247425849197,
                    0.023638838323489304,
                    -0.7390476950966212,
                    -2.4659109542972795,
                    -0.7459649516584747,
                    4.369925292109849,
                    -0.5354539461733808,
                    1.1344463039240116
                ],
                [
                    1.7298850750845463,
                    2.644173265611822,
                    -0.5329222649928831,
                    -1.3263840947717054,
                    2.2671457837841693,
                    -1.1104129483753915,
                    -1.445669884287545,
                    -2.61508725824379,
                    -4.240085901835797,
                    -0.39368563396662987,
                    3.618447139299008,
                    -1.895418708544737,
                    -4.080661912758097,
                    0.004803735025585887,
                    0.5284018113250605,
                    3.340800914954409,
                    0.7039222085483099,
                    0.31809316691398853,
                    -3.5538820275476217,
                    -3.650569048046778,
                    0.636748044770773,
                    -1.3008173245329762,
                    -0.18305467448070487,
                    -0.3822924345709516,
                    -0.11850091791128389,
                    0.14772571303258428,
                    0.6196557052385859,
                    1.137563601286499,
                    1.5295596281993304,
                    0.4227250955620814,
                    -0.5482974826552439,
                    -0.9059119109361433
                ],
                [
                    3.5168004350799142,
                    2.7360333332619393,
                    -0.39128770722670775,
                    -6.592295347864327,
                    0.7718749726596622,
                    0.6010255908064197,
                    -1.9659331832276454,
                    -4.134816060376987,
                    -1.209174855165531,
                    -1.2144420857660125,
                    -0.4502907354934671,
                    -0.3527276924899411,
                    -0.10059258219299723,
                    0.07133565853727522,
                    0.7496146938348067,
                    -0.06960649062818179,
                    3.619294142415905,
                    1.5804103893862436,
                    -0.2805617202154342,
                    0.9566209324359976,
                    -0.371260492301671,
                    0.4840053384141287,
                    0.6831944127479563,
                    1.055617247360914,
                    2.5217918491759552,
                    -3.834436865987048,
                    1.765892623189905,
                    -3.1292861010464144,
                    -0.5534700449021417,
                    -0.3621377748432558,
                    -2.837921035808575,
                    -0.588128586672665
                ],
                [
                    1.7787612856941701,
                    0.678948410305985,
                    0.4644224492066931,
                    -0.32032625037670004,
                    0.47419203211242916,
                    -0.8164006688372167,
                    0.6992261843242642,
                    -2.990220061850954,
                    5.099340432755126,
                    -0.7083792032796968,
                    1.136564898213752,
                    1.4306608038123698,
                    1.541456354614693,
                    -3.1496023825635597,
                    2.5939241852133827,
                    -0.15677101265391816,
                    -0.2443292578348767,
                    -0.23646425402310486,
                    -1.2609470791292885,
                    1.1780458640142728,
                    -0.5253710251245334,
                    3.868318901633547,
                    -2.0123094637650145,
                    1.0143045542600935,
                    0.9372123741398171,
                    -0.8986429073021273,
                    -1.346079569078125,
                    0.8951602713227359,
                    2.3877112319069758,
                    0.9637828896723206,
                    4.1890385614376395,
                    1.2268733393890423
                ],
                [
                    -0.5330099605986091,
                    0.4584916560795163,
                    3.5344325757951465,
                    1.561035691954559,
                    -0.11758604756464723,
                    0.8040934637763911,
                    1.9278506950256329,
                    -2.7530162502304565,
                    -2.341284736099238,
                    3.253287133187094,
                    2.6423047952300784,
                    -1.847812249929557,
                    2.123358649589588,
                    -5.282915542867323,
                    1.332797902894504,
                    -0.0753065735876117,
                    1.3869036045313718,
                    -0.26806612838254373,
                    0.5397126117187669,
                    0.3555023433543856,
                    0.304324851075281,
                    0.5270739544767372,
                    -6.11022777591407,
                    1.2489030664068472,
                    -0.11919373453734185,
                    3.1268435573595252,
                    -0.28643441002448383,
                    3.520737057419663,
                    0.15586031301423386,
                    2.4807704980912093,
                    -0.8588119678126301,
                    -3.764923210879588
                ],
                [
                    0.49132058043948035,
                    -1.5594773688854824,
                    -1.0144962726498261,
                    -2.1431932298163168,
                    -1.4311273213090623,
                    -1.791087522203825,
                    1.7749640298844955,
                    1.0555298370362376,
                    0.1740175624149168,
                    1.3920372113842152,
                    0.19342250396590388,
                    1.3820706027401588,
                    0.03581694892755001,
                    1.0995149633031287,
                    0.5690818626934607,
                    0.8493810504870847,
                    3.47762141368383,
                    -2.811969101893012,
                    3.9308328976922153,
                    -0.621342686949614,
                    2.1765751766591905,
                    1.798225652211122,
                    2.0724267471041506,
                    -1.0467172067352017,
                    1.1559255022577521,
                    0.0064839422871831335,
                    0.614043689685631,
                    -0.5889152081709867,
                    -1.0250816601358965,
                    2.4976773318308894,
                    0.845887058353543,
                    2.7417308090633865
                ],
                [
                    0.8606349281410628,
                    -1.0657798252916446,
                    2.0149966152261642,
                    1.3238408434167777,
                    -0.3295583513770227,
                    1.0460713820889824,
                    0.7814480496848655,
                    2.3239326978431865,
                    -1.232173903298619,
                    -1.733781549669447,
                    -3.723026337609577,
                    1.7650735418923438,
                    -1.3879196386356754,
                    -1.5226717694252083,
                    -0.40786423172475667,
                    -0.22952267435395543,
                    -0.8673823331482298,
                    -0.7461601280674215,
                    -1.1985688466737778,
                    3.5369439586081413,
                    3.5409718417949048,
                    2.1151134965636875,
                    2.3216466071152566,
                    -1.5590980879016676,
                    0.45672657321111343,
                    -2.8790294409139277,
                    0.2841322427334186,
                    -0.2189940451850818,
                    0.3595100999073301,
                    -1.7861391149550798,
                    -0.06067578691340763,
                    -2.1621524727779096
                ],
                [
                    -0.391675319311904,
                    -3.1314777839889274,
                    -1.3678526629562202,
                    -5.150660400012566,
                    -1.1623674506245958,
                    1.6634642906573927,
                    0.7918414473151341,
                    1.4063207495694954,
                    0.47665774247943105,
                    0.02406000419705774,
                    2.299001584390894,
                    0.21470024954275413,
                    0.49589742495521016,
                    -2.5011143598138377,
                    -2.7747127622213985,
                    -1.4623403544430702,
                    1.4103651236667982,
                    1.0852543346254548,
                    -2.6988446619960427,
                    -0.2254647603758292,
                    0.9276844054342734,
                    0.9857244516181899,
                    -0.01884618727766571,
                    -1.7003299449689462,
                    -1.5469073102625286,
                    1.2175900751475282,
                    -1.5086649196754751,
                    3.9801455254692555,
                    -0.35513679135717824,
                    -0.33322776170975893,
                    -5.8335902527727415,
                    -2.534095238766572
                ],
                [
                    4.753196034237255,
                    -0.770128055845789,
                    0.6584004703247736,
                    -2.847493320145611,
                    1.7656183056383095,
                    0.4873641820929319,
                    0.38288370796089716,
                    0.03821508917830823,
                    1.2428105638914726,
                    -0.5952006697261449,
                    0.015083191198486598,
                    -1.3156855596266512,
                    -3.5287200515949944,
                    -1.0471257459625491,
                    0.9501562447461955,
                    0.4913814391569923,
                    -3.115102834178261,
                    -1.0934963719893769,
                    0.07648251275434058,
                    -0.5734965151652727,
                    -1.5264995468194629,
                    -1.1340224453079455,
                    -5.88063007896023,
                    -0.4520469167978361,
                    1.1459373302046871,
                    0.8553422226830544,
                    0.018757763250388318,
                    1.6442808345739823,
                    -5.018352341059472,
                    1.308832547255475,
                    -0.9724975446039893,
                    -0.8490204613358866
                ],
                [
                    1.310487369824622,
                    -2.0645466909173167,
                    -1.1138113173953523,
                    -2.1334969825884875,
                    1.2420237876690772,
                    -1.4182453452078545,
                    2.8795689987307074,
                    -1.478611895219965,
                    -4.414169613131579,
                    -1.893026736528304,
                    -0.2528839949863798,
                    1.7648415968460165,
                    -4.316890488706626,
                    2.152430590299926,
                    2.934349290977323,
                    -3.5563774866107316,
                    -0.06327417030261166,
                    0.6602668094516797,
                    -1.2335646341833395,
                    0.9952010785197338,
                    -2.3191226299428465,
                    1.293753170015498,
                    -3.6964139206760738,
                    -2.357528021925239,
                    -4.02409463888145,
                    0.028688756401707614,
                    -1.9316289571798373,
                    0.9724983275357625,
                    -0.15532494586611603,
                    2.4814234676075357,
                    3.4906504913695193,
                    -0.579207587569988
                ]
            ],
            "B": [
                [
                    -0.2533147534298103,
                    0.09161001438691675,
                    0.09064832441027423,
                    -0.8697979284432907,
                    -1.0686210593787953,
                    1.1415036868915682,
                    0.4204190910584888,
                    0.6936774581714303,
                    1.4870865011347836,
                    -0.3670872474365368,
                    1.2159004027698181,
                    -2.5801071353655343,
                    -0.9670287638408904,
                    -3.1586491496332023,
                    -1.781154063136598,
                    3.2903934400473416,
                    -3.282544481859692,
                    2.5148148784291586,
                    -0.31162785359728357,
                    0.3661873526444377,
                    -1.3062284000334001,
                    -0.006179951355123106,
                    0.7369895781510928,
                    0.8076663701971623,
                    -1.4850959318617567,
                    -1.884870653242185,
                    -2.0073308161694654,
                    0.9220425730961963,
                    -2.899204886624103,
                    3.1118500809714353,
                    4.211080007033321,
                    1.799611925897252
                ]
            ]
        },
        {
            "W": [
                [
                    1.0018469007852515,
                    -0.3140590701958812,
                    0.45074598163937907,
                    -1.6240709087961784,
                    -0.7543417504680113,
                    -6.288790143194851,
                    0.8211516070055052,
                    1.7781870217780313,
                    -1.4938862137563766,
                    -0.9806532747046289,
                    1.2953191014498768,
                    0.5597805581307984,
                    1.699516820132735,
                    -4.117748311821265,
                    0.9799156096809112,
                    -2.626838330023436
                ],
                [
                    -0.7195294736017166,
                    -1.2825172182626206,
                    -0.34708600883653395,
                    1.3940317330066059,
                    -3.275776311399074,
                    1.1841651725869329,
                    -0.7927047397631167,
                    -2.9807453302670712,
                    1.9024407828057859,
                    0.4287458729610018,
                    -2.07472920685799,
                    -2.8159863811206476,
                    1.4640827200910171,
                    -0.32335850938324023,
                    -0.4405297721919183,
                    2.8926739792734826
                ],
                [
                    -0.024729701687396983,
                    -0.544254746716766,
                    -3.70469840035946,
                    2.534220166729517,
                    1.0423909057994378,
                    0.7661325677156754,
                    -1.4834019807032035,
                    0.027881540056926554,
                    -1.152432164062114,
                    0.5484853964720027,
                    -2.0184204987238643,
                    -1.0508933379621168,
                    0.6265910917830315,
                    -0.19343382434879294,
                    -0.1187117922652238,
                    -0.1670970182552413
                ],
                [
                    4.183513435669675,
                    -0.367556869813643,
                    0.3297698679534856,
                    -0.6214664633932301,
                    0.2112176793210055,
                    -1.7909442264195263,
                    -1.0695339442380647,
                    1.979653637920746,
                    -0.9330502075753286,
                    0.62692960528915,
                    2.756177426953416,
                    2.920414802611377,
                    -0.44919511173253657,
                    0.7011313674907296,
                    -0.9459853506112113,
                    0.12909221674275298
                ],
                [
                    -3.6333314033734765,
                    -0.2578690815688491,
                    3.046467543706614,
                    -2.380765295757378,
                    -1.7383041797543248,
                    2.603223159399573,
                    1.6396533700273013,
                    -1.9517570666166337,
                    3.342543224717239,
                    1.653761181931249,
                    1.6860579278982162,
                    2.501268200925154,
                    -1.1306504572333966,
                    -1.823001914972809,
                    1.729348616160848,
                    0.4041783819599919
                ],
                [
                    -3.521652844027088,
                    0.7311773480971868,
                    3.565940199230984,
                    1.8409894306715215,
                    -1.2532964854428594,
                    -0.35771961799736557,
                    -1.8135390304191694,
                    2.5344405449778407,
                    2.2871509609350498,
                    -0.44581112250218713,
                    -2.622932518821785,
                    2.2326199451343984,
                    1.396645923176516,
                    -1.045805872583278,
                    2.5789177199491466,
                    -4.532366152607003
                ],
                [
                    0.8389694237873835,
                    -2.0982648278828897,
                    1.9147333930327677,
                    0.4817037817468935,
                    1.367517680169272,
                    -5.331110204209502,
                    1.1933263324171042,
                    1.8757298516513508,
                    2.36884047261063,
                    1.6216102547654516,
                    0.3648958592342623,
                    0.5050182668196159,
                    0.2256458858683759,
                    -0.7909349554134372,
                    0.41339260125257626,
                    5.423258734871911
                ],
                [
                    0.11055731014924981,
                    4.477338213724536,
                    -2.0586563045537103,
                    3.2285290934296276,
                    2.251760088307087,
                    1.9494239888852798,
                    -0.7956460233449973,
                    -1.5166892456711618,
                    0.31996128289425374,
                    3.1410226077870553,
                    1.5324723411178696,
                    0.2178058156933087,
                    -0.7085838763092711,
                    -1.0724595661919005,
                    4.280614480043097,
                    -2.489305139017634
                ],
                [
                    0.6169608187788844,
                    0.0711407034225711,
                    -0.5394574004611002,
                    -0.9276448998992177,
                    0.2528843149994112,
                    -1.4786033022299478,
                    0.04556369792561188,
                    1.7506273487663382,
                    0.6402444994009804,
                    -3.3340440664686133,
                    2.28628429313532,
                    0.4526463495004129,
                    -1.570351242694206,
                    0.38448428205325996,
                    0.23217018752594776,
                    1.6612109205601184
                ],
                [
                    -0.33823561367594956,
                    -5.562955779792944,
                    4.393086158996891,
                    -4.5725968260383345,
                    1.53246483276077,
                    -1.945169285750705,
                    0.2188250203739428,
                    -0.15238851032403705,
                    -1.2884897217290043,
                    -1.4623710779496724,
                    0.25040022627464636,
                    -1.1735058441842168,
                    0.6557579853528649,
                    -0.9899921169801713,
                    -0.3361050610721376,
                    0.4265342480560627
                ],
                [
                    -0.9255272443255966,
                    1.3645833894347275,
                    2.256642106055693,
                    -0.4682543132173616,
                    5.998537172074489,
                    -1.5299507130891372,
                    1.2692323053081942,
                    -0.9342649057117184,
                    -2.0770074531896676,
                    -0.540368931761831,
                    0.15007764088143938,
                    0.4297021790892237,
                    0.7003493460074309,
                    -2.506792593308387,
                    -1.5472376195060231,
                    -0.6118340258900005
                ],
                [
                    0.5556867764398135,
                    -1.2870592357872284,
                    -1.9845439249785555,
                    -2.9468268818034633,
                    -1.218924017129004,
                    0.37799798274813784,
                    2.7606518844210512,
                    -2.5615802427618273,
                    0.045589176957780815,
                    0.6966015480605983,
                    -1.2242947452322799,
                    0.49420600505771095,
                    -1.6313146430302174,
                    -3.5731304044902967,
                    2.078763617109618,
                    1.837944788812692
                ],
                [
                    -0.5066946002517277,
                    -2.480067339822664,
                    1.3971214962765035,
                    3.551317484157369,
                    -0.5523941986111023,
                    3.4017108923893637,
                    -2.0824180246132795,
                    2.1750062856070422,
                    -0.26164690247326894,
                    2.2916507901255936,
                    0.9428487485929571,
                    -4.51517765846163,
                    -2.4897377535496004,
                    -0.3899838902903037,
                    -3.3875787450273487,
                    1.3979208982502411
                ],
                [
                    0.44569010756873306,
                    1.045839310212028,
                    1.6000711764679956,
                    3.3170978713592034,
                    -0.1345555750500884,
                    -1.817420113784225,
                    1.099204631823321,
                    -2.468052508931991,
                    4.669657017382835,
                    -3.599623029239527,
                    0.30796886301873816,
                    -2.772646097283288,
                    1.206177671172469,
                    3.1413115119845556,
                    -0.764825765561869,
                    1.859096350977494
                ],
                [
                    -4.061653364672207,
                    -0.593760131374172,
                    1.8426263311929474,
                    0.16357950356103573,
                    1.054350212470405,
                    0.03724542902997753,
                    -0.9258364824102426,
                    0.0929013541308058,
                    1.6592499387505586,
                    -0.6512486633629083,
                    -2.8948522047998426,
                    1.0599353924291683,
                    0.9010986332082404,
                    -1.2225666890164375,
                    0.3062277876471904,
                    -1.1602354242576345
                ],
                [
                    0.27126872688705567,
                    0.5552667258308867,
                    1.4670398248125587,
                    -1.3342495644382881,
                    -2.469604850855999,
                    0.9786358585058722,
                    4.503152668001076,
                    -3.413160303967473,
                    -4.283225243569782,
                    0.5338691209699044,
                    -2.189101604855913,
                    -1.2021225461869944,
                    -0.3010227458013716,
                    1.3519619470830795,
                    -3.5188448701856636,
                    -5.727480014354134
                ],
                [
                    -0.2272019422855336,
                    1.2184333536901657,
                    0.3740853806125528,
                    -0.15095953566461617,
                    0.7936563836674879,
                    -1.8238589833655614,
                    -0.018102888198552235,
                    1.5617084780337884,
                    0.66343650461781,
                    1.2651550592574123,
                    -0.4656060284836862,
                    -0.5399206180619296,
                    -1.3989662841010386,
                    3.0774903029628358,
                    0.05093356951391088,
                    -3.7603278216220586
                ],
                [
                    -0.48576070823674095,
                    -0.5930262409635907,
                    -1.3514804659057094,
                    3.624841974294846,
                    -1.0335302285429773,
                    -3.107207269240155,
                    -2.907940395667299,
                    -2.7929081120526913,
                    1.2239644346234209,
                    -0.6742974304359779,
                    -1.070653905995324,
                    1.6336459517541075,
                    -2.922569306490695,
                    -0.05435847375757263,
                    -0.10375549113536695,
                    0.5494192658532602
                ],
                [
                    -3.0663899739132217,
                    0.36448583149846064,
                    2.0866329763197764,
                    -0.6690871176190544,
                    -0.8769920740066507,
                    -2.67672728338208,
                    0.05666300685195273,
                    -2.99554882991883,
                    1.082242963212606,
                    3.2672263370959502,
                    8.665251279033537,
                    0.38514453790841574,
                    -0.9094300107591827,
                    -4.351827603754037,
                    -0.24215149920557544,
                    -0.24676751559714716
                ],
                [
                    -0.7548031274176908,
                    0.018082554049192047,
                    0.8729935789931729,
                    1.532516950506953,
                    0.9954282837966141,
                    1.266226158848355,
                    0.6845265141933806,
                    0.5549475958293384,
                    -2.3827178109670095,
                    -2.1224317486877693,
                    -0.9389847041775473,
                    -0.7356777750567574,
                    -0.27327239551780486,
                    0.9533251429869871,
                    1.6900618214485885,
                    2.3886183375324292
                ],
                [
                    -1.335136850513197,
                    2.383103020057481,
                    -0.34134910383728784,
                    1.0771023896104333,
                    -6.547867513873062,
                    1.8963599887924714,
                    -2.923549374360567,
                    -0.3852566696588602,
                    1.151863421834292,
                    -1.251783765087416,
                    -1.7737968243770343,
                    -2.897577418319154,
                    -2.963598738239486,
                    -0.7353796068396338,
                    -1.950235547976887,
                    -3.5600856189244396
                ],
                [
                    -2.8977369499391035,
                    1.4294748701491573,
                    -0.007239735563026359,
                    1.124877450741396,
                    0.6922680895074205,
                    -3.1900697384618817,
                    -2.4636611106422825,
                    -0.5709983473210063,
                    -1.4189597785154664,
                    -1.6077128355590458,
                    1.027245570676402,
                    1.382711818724417,
                    -3.18002933779741,
                    -0.2577500601704995,
                    1.135349888738086,
                    -2.80735779933415
                ],
                [
                    1.554066496816651,
                    -0.11962124260081623,
                    -1.7751844054784314,
                    0.3965671153596999,
                    -0.7838393223623171,
                    -1.1630870795961956,
                    -0.6018009158643336,
                    1.1038544641031862,
                    0.29492042561232,
                    4.3328757969881435,
                    0.3907159814789049,
                    0.8104576285191577,
                    -0.5999437478076967,
                    -2.6600522937374427,
                    -2.815087030130241,
                    -2.6436892774569185
                ],
                [
                    -2.6678411887453404,
                    -0.09968579815236925,
                    1.3312058094018975,
                    0.7739685503090603,
                    -0.7465287584450512,
                    -0.5455318647970391,
                    0.2234411163532874,
                    -0.9762067751294454,
                    1.5972214614990097,
                    -0.9902441224342914,
                    1.7387393434727356,
                    4.244555928834202,
                    -3.5881081261102588,
                    -1.0594679934802473,
                    3.695397525421817,
                    -0.6483691499797424
                ],
                [
                    1.5277366996757609,
                    -0.22235487059019307,
                    0.5663792916386781,
                    1.3516376967372739,
                    2.864812141764136,
                    -0.7693025500656128,
                    1.3154433731053865,
                    0.19517200134668153,
                    -2.0301120870292544,
                    0.8745995599912181,
                    -2.1089155784376965,
                    0.5134646641197996,
                    -3.8107144671362816,
                    1.6706129251593318,
                    -0.1227458120526812,
                    -2.708372849249401
                ],
                [
                    0.36606371469722077,
                    0.8934035616464264,
                    -0.8953440957738443,
                    -0.04890439029125034,
                    1.8276693788967178,
                    2.942497663352088,
                    3.565872841850074,
                    1.567929874769447,
                    3.0808517621956355,
                    -2.0878086604104373,
                    0.48014244639146975,
                    -2.4680790711522977,
                    7.490240846208053,
                    -5.542329331119693,
                    -1.359352415913069,
                    2.5937913652314677
                ],
                [
                    0.8167886507865971,
                    1.8848159100481998,
                    -0.6647174951059365,
                    2.963192159844445,
                    -1.2349496707126995,
                    -0.4506517272402985,
                    0.5050784617923941,
                    -2.421630042456606,
                    1.2993544347915353,
                    0.47712772570307344,
                    -0.37171598101278874,
                    -0.1565807880417366,
                    -0.711112406995517,
                    -1.7720035048366976,
                    0.2721551740883,
                    -2.365603991261181
                ],
                [
                    -0.676833286042519,
                    1.7972749251010112,
                    1.4110986083842136,
                    3.2686778072291753,
                    -3.4414702261881924,
                    -0.26117913449743174,
                    1.9979306604609326,
                    1.989767592206806,
                    -0.4616920189381549,
                    2.0636174132655967,
                    -1.6717897416148173,
                    2.1453311060263074,
                    0.5521616032816115,
                    -0.4805118438174161,
                    -5.9784419625701615,
                    -3.2222786918315696
                ],
                [
                    -1.5577484281255094,
                    -1.109708449301824,
                    0.9555584599440404,
                    -0.5371835190024735,
                    -4.902310541029771,
                    0.054602288609501684,
                    0.7549865777500199,
                    0.005813868879463155,
                    -2.424716324220719,
                    1.599779606031141,
                    3.703965051507805,
                    0.6676509631329529,
                    0.3123353434281066,
                    1.8367380554253132,
                    -2.492155368913196,
                    -0.01027705147935648
                ],
                [
                    -0.8219415984800622,
                    1.103155457221945,
                    0.9097036067333668,
                    -1.645945073170524,
                    0.6994706542453308,
                    2.787667256053507,
                    1.813738778888471,
                    1.2841777200141493,
                    -1.3953389822726592,
                    -0.27505130191582866,
                    1.996030420614267,
                    0.8841492739340765,
                    3.36126215664287,
                    0.22954393126199052,
                    -0.6634279580382325,
                    -0.7546433857286519
                ],
                [
                    -3.1149573473743026,
                    -0.03568815676111421,
                    -3.700002344045171,
                    -0.19737389275339032,
                    0.2585372754400959,
                    0.18411849171337133,
                    0.6429610342487906,
                    0.9421859825745938,
                    -1.2707707585548187,
                    -4.178178037864635,
                    2.2150697240869395,
                    1.015332285703485,
                    -0.4148939227908068,
                    -0.5179959404554002,
                    -1.7728833974671214,
                    -0.2715048874373863
                ],
                [
                    1.0855365673367814,
                    -0.9521688931366449,
                    -1.6916115919792656,
                    1.3706745626025034,
                    2.189446032644892,
                    3.505019704843277,
                    0.9524818778705375,
                    3.2261773739212902,
                    -1.951063002167063,
                    -1.4595960072258314,
                    2.457869947931905,
                    -0.07953480307137796,
                    -3.3784812997901597,
                    -0.257974798158404,
                    1.8325859526548414,
                    -0.18709575224097125
                ]
            ],
            "B": [
                [
                    -0.6785938980745152,
                    0.14353802621914447,
                    -1.944011878817968,
                    1.0182030220046734,
                    0.04413731316847027,
                    3.161290165275505,
                    0.8264433879740696,
                    -2.802792718127373,
                    -1.9271774191436304,
                    -0.3280938293810523,
                    0.3918621799478113,
                    -2.9821197743547097,
                    -1.1314520418867997,
                    -0.750879757727456,
                    1.4420683015805547,
                    -1.5669102759283198
                ]
            ]
        },
        {
            "W": [
                [
                    -0.27487691812867515,
                    -1.2038082481483958
                ],
                [
                    -1.9753822437777466,
                    -1.5612403311400924
                ],
                [
                    4.627716421393422,
                    -1.681444577791186
                ],
                [
                    6.03666737450082,
                    -0.18042098540892426
                ],
                [
                    2.2791572620443676,
                    -0.4788464941873171
                ],
                [
                    -0.251671947238336,
                    0.4009935941176711
                ],
                [
                    -2.5239213154323936,
                    -1.3600165136588578
                ],
                [
                    3.3569875486957286,
                    -1.9714651681754412
                ],
                [
                    -6.20348976207556,
                    0.344197330766026
                ],
                [
                    -0.6851643942122875,
                    0.1047530813749511
                ],
                [
                    0.8470492633099702,
                    0.3390020620725996
                ],
                [
                    0.9043824796118326,
                    5.05731270231364
                ],
                [
                    -0.37415160991459395,
                    0.36891851955559785
                ],
                [
                    0.8581031277165528,
                    0.46279021893530026
                ],
                [
                    -0.7279749381210591,
                    0.8324559530233179
                ],
                [
                    -0.06536235669459912,
                    0.01794251279152206
                ]
            ],
            "B": [
                [
                    2.582993346954639,
                    0.6359691860990064
                ]
            ]
        }
    ]
}