{
    "layers": [
        {
            "W": [
                [
                    0.6187724191796389,
                    1.849904385589288,
                    1.7950406360609052,
                    0.4483395851829561,
                    0.8108061705015491,
                    -1.5472772630560907,
                    0.1216567523609414,
                    1.1061980993952363,
                    -2.4344337916123426,
                    0.6746313959224927,
                    0.6390686106226943,
                    -1.3625317821100686,
                    -1.0370367133180118,
                    -0.0186960516282329,
                    0.22066316979185366,
                    -4.36707712167766,
                    2.278389062531393,
                    -0.3356351352694148,
                    -1.0550535230695515,
                    -1.388649435211951,
                    0.2787084158811938,
                    -0.20658176939149966,
                    0.6962583089430056,
                    3.6280896421968465,
                    0.9636003736548348,
                    0.7362160079420347,
                    -4.236147611900978,
                    -1.5473490270131374,
                    0.46272038288718914,
                    -0.5910251081803025,
                    -0.4540029887004563,
                    -1.4603572359657042
                ],
                [
                    -0.4682866694516709,
                    -2.5103158159078593,
                    0.38586087544750913,
                    -3.699479920431478,
                    -3.1368009907581396,
                    -1.142710099094956,
                    -0.05370980556039053,
                    2.7103581034781463,
                    -2.0825161975919415,
                    -0.8565556448823419,
                    2.259537416005895,
                    -0.23350857668154182,
                    0.2591339475096963,
                    2.467907715979554,
                    -0.335228670019418,
                    -1.5379088280211133,
                    -0.9246511367002633,
                    0.30148556549058214,
                    -7.2655729826855575,
                    2.1907497355625862,
                    1.0272467230246463,
                    -1.1912707704980394,
                    1.3209610265900145,
                    -0.2806894084009207,
                    -1.0003881084084978,
                    0.28987693539897225,
                    1.8636221881041573,
                    0.6087881476629589,
                    -1.8145076576091348,
                    -0.0036836828724675823,
                    0.3706884251160909,
                    0.5639524621176067
                ],
                [
                    -1.4749626081353642,
                    -2.9071213088654897,
                    1.0536874191811247,
                    5.702239904591002,
                    -2.952772687453821,
                    0.13102521540348136,
                    -0.3632406176882705,
                    0.062383114667584894,
                    -1.2523966012473122,
                    2.9409118325779873,
                    -1.8494286816011527,
                    -1.3299834829876955,
                    3.884402399558742,
                    1.9951397045343295,
                    -2.669214627833989,
                    -0.06355170955350228,
                    -0.8445345648957093,
                    -0.39051962115822797,
                    -5.510629984884122,
                    -0.2318832530107351,
                    -0.08017395109559243,
                    1.3785802950522748,
                    -3.6959109078028383,
                    2.4539915182426504,
                    1.2326458801312459,
                    0.6008050149627896,
                    -0.026789115704581607,
                    -0.20915453984343155,
                    1.5932169428261722,
                    -2.4610320529823215,
                    -0.9269762634358772,
                    -0.6273271808375614
                ],
                [
                    -0.456159548434287,
                    -1.3514879936517563,
                    -0.9626008492028908,
                    1.58357713220112,
                    2.738282558620555,
                    0.0881752908175883,
                    0.7507494702486566,
                    5.89473912684197,
                    -0.03779079465765461,
                    -1.1689595170036242,
                    -1.922855287233323,
                    -1.1264400404844446,
                    -2.3180873924122185,
                    0.6966494417374274,
                    -0.5401765324464527,
                    2.133682103376353,
                    0.8249833988525063,
                    3.4854539860181104,
                    2.515843712073216,
                    -0.28356798535184635,
                    1.5919890287938097,
                    -1.5446929731823884,
                    0.04200422278084695,
                    0.20551234822637895,
                    -1.811534464927255,
                    -1.4549584647839169,
                    -0.42053648458108417,
                    -1.1181776784759083,
                    -0.4241127459291413,
                    -0.6589566581988741,
                    -3.1229628448522613,
                    1.2438899485144759
                ],
                [
                    0.5348411460616646,
                    -4.321290292561394,
                    -3.1066716273173074,
                    -1.4316170582892223,
                    -0.45910680919990227,
                    0.21532905838345123,
                    1.712057414792007,
                    -0.4636804817198837,
                    -0.11746936080537208,
                    -1.418296752216122,
                    -3.249849356936983,
                    2.474571336056792,
                    0.20113271371957048,
                    0.2036010684485423,
                    -1.2192695498189132,
                    -0.8492047859432373,
                    -0.3101020690083915,
                    0.4307605127035872,
                    1.1678380828670305,
                    -0.5247111906104711,
                    -1.758625490581335,
                    -0.7018129703520293,
                    -0.18343384038160107,
                    -0.5646359364339287,
                    0.9820852402414094,
                    -0.2766240918683331,
                    -0.4183097314550703,
                    -0.6461802827934592,
                    -5.591973092670347,
                    -0.4032866383431451,
                    -1.871113453726694,
                    -1.672217720052857
                ],
                [
                    -0.8786360543851692,
                    -5.217614078012327,
                    -1.3816697585307316,
                    1.5429232505843344,
                    0.3651732619566,
                    0.8752027023302733,
                    -3.1018936934300942,
                    -0.1441455580054951,
                    0.7413746948944275,
                    -0.8777010200103474,
                    0.9707292314587492,
                    0.7287253826480404,
                    0.4712023805589832,
                    0.5357653127499397,
                    -3.154766426962246,
                    0.8844790118337116,
                    -0.9792190201613669,
                    -1.5503565987938455,
                    -0.6314891850707715,
                    2.5318387138930123,
                    3.180585098607599,
                    -1.7463647655551418,
                    -0.7284777212926818,
                    2.0358015261536777,
                    -3.488438522956121,
                    -0.6758922732921011,
                    -0.6532247827951131,
                    -0.02913008726464548,
                    0.3954259857796291,
                    0.3072359403069685,
                    -3.3000649034026313,
                    -1.0898303970388747
                ],
                [
                    -0.1704850622207698,
                    0.1665108790994523,
                    0.35655204022166703,
                    -0.2491594990209957,
                    0.986969600830735,
                    -3.2783433613163684,
                    -2.947229128157914,
                    -1.7771842648003124,
                    0.11879228886432622,
                    -2.913950744487645,
                    1.1177943887183392,
                    -2.0314774584039124,
                    2.0657742570315567,
                    2.464618138804268,
                    0.4133168373151789,
                    -2.5705681959539715,
                    -2.8898318325687526,
                    4.298892847851304,
                    -1.2350861974314575,
                    -0.7994457770406107,
                    6.407861895589524,
                    2.079662480525818,
                    1.4452872434794093,
                    -0.3997913954669357,
                    -0.3950356591428024,
                    -2.9616721512518254,
                    2.590933364326591,
                    0.9139637465427474,
                    0.40774462218365676,
                    3.0577744966351927,
                    1.0074457904895109,
                    2.848926684851071
                ],
                [
                    -1.8423488180475702,
                    1.6488658180406626,
                    -0.5445133620389128,
                    1.405012013228945,
                    -2.665049767585072,
                    2.229864363986571,
                    2.0264807195701247,
                    1.3782516805714349,
                    -2.8447448889426923,
                    0.2136262888985109,
                    -2.5326329333372435,
                    2.6279105740293347,
                    -0.021554090885574487,
                    -2.117569286227563,
                    0.08184183819150312,
                    -3.0800716070420036,
                    7.341976538241439,
                    0.9881458727364724,
                    2.7710111889028273,
                    1.3483712357307367,
                    0.7314098973743254,
                    -0.02724745205971171,
                    2.0867997440058117,
                    1.315656775423526,
                    0.22415392815758106,
                    0.0198797799248647,
                    -0.7390476950966212,
                    -2.4690461931826935,
                    -0.7459649516584747,
                    4.370252254994123,
                    -0.5348078116112703,
                    1.1177585323358774
                ],
                [
                    1.7260893419358116,
                    2.642980130533517,
                    -0.5170934479174005,
                    -1.3256245443146362,
                    2.2596223720119504,
                    -1.1104129483753915,
                    -1.445669884287545,
                    -2.61508725824379,
                    -4.238355609072342,
                    -0.39495149191396695,
                    3.6052025270915604,
                    -1.9382600525155518,
                    -4.080661912758097,
                    0.004803735025585887,
                    0.5282191759873005,
                    3.341050091642697,
                    0.7039222085483099,
                    0.3185179848355953,
                    -3.5538820275476217,
                    -3.650569048046778,
                    0.6360541118968567,
                    -1.3008173245329762,
                    -0.18437650032462619,
                    -0.3822924345709516,
                    -0.11210498233677535,
                    0.14772571303258428,
                    0.6196557052385859,
                    1.1331620060939571,
                    1.5297695066976564,
                    0.4228986705626852,
                    -0.5482974826552439,
                    -0.9151260104857698
                ],
                [
                    3.5162557505698873,
                    2.716216396368734,
                    -0.39128770722670775,
                    -6.592295347864327,
                    0.7718749726596622,
                    0.6045062953139664,
                    -1.9581648270127998,
                    -4.134864553435701,
                    -1.2087511153464696,
                    -1.2548692751822985,
                    -0.45075027467215145,
                    -0.3527276924899411,
                    -0.10092008233559381,
                    0.07133565853727522,
                    0.7537185028193434,
                    -0.06960649062818179,
                    3.619294142415905,
                    1.5818663497987793,
                    -0.25056065029669417,
                    0.9566209324359976,
                    -0.38784821065784864,
                    0.4840053384141287,
                    0.6831944127479563,
                    1.055617247360914,
                    2.5549205567764246,
                    -3.834436865987048,
                    1.7676868579028568,
                    -3.1822460077997983,
                    -0.5534700449021417,
                    -0.3813452157582623,
                    -2.837921035808575,
                    -0.5919272543196021
                ],
                [
                    1.7787612856941701,
                    0.6769915248726903,
                    0.4627815986421941,
                    -0.32032625037670004,
                    0.47419203211242916,
                    -0.8163247296289805,
                    0.6992261843242642,
                    -2.9903205009736697,
                    5.099340432755126,
                    -0.7083792032796968,
                    1.1320192633514632,
                    1.4278698793833953,
                    1.541456354614693,
                    -3.168120413209472,
                    2.5939241852133827,
                    -0.14135960732033442,
                    -0.2461230932438877,
                    -0.23646425402310486,
                    -1.2602669432707523,
                    1.1780458640142728,
                    -0.5246843904107084,
                    3.8692117869131004,
                    -2.0123094637650145,
                    1.0188643995513345,
                    0.9374076190763692,
                    -0.8687668308251754,
                    -1.3446269400555013,
                    0.9011362762285638,
                    2.3877112319069758,
                    0.9646224292552266,
                    4.184718325739245,
                    1.2318007593336655
                ],
                [
                    -0.5330099605986091,
                    0.4584916560795163,
                    3.5344325757951465,
                    1.561035691954559,
                    -0.11758604756464723,
                    0.8018866151017345,
                    1.9736902716855953,
                    -2.7512482834468526,
                    -2.341284736099238,
                    3.253287133187094,
                    2.6423047952300784,
                    -1.8477957843936306,
                    2.123358649589588,
                    -5.282915542867323,
                    1.3298928252227717,
                    -0.07637040444841203,
                    1.387034471642951,
                    -0.26295174867410726,
                    0.5397126117187669,
                    0.3555023433543856,
                    0.3021850033230521,
                    0.5313546745755846,
                    -6.110572054444185,
                    1.2634591730012377,
                    -0.12020086479091965,
                    3.1268435573595252,
                    -0.28629423926592795,
                    3.520737057419663,
                    0.15586031301423386,
                    2.4829292507504026,
                    -0.8588119678126301,
                    -3.7409632747322723
                ],
                [
                    0.49132058043948035,
                    -1.5594773688854824,
                    -1.0132021920193077,
                    -2.1453777381228143,
                    -1.4098134921269896,
                    -1.791087522203825,
                    1.760862292888476,
                    1.0555298370362376,
                    0.15630582962362183,
                    1.3920372113842152,
                    0.19193531698311436,
                    1.3820706027401588,
                    0.0370842100750286,
                    1.0995149633031287,
                    0.5695855433485715,
                    0.8493810504870847,
                    3.47762141368383,
                    -2.811969101893012,
                    3.933033820885802,
                    -0.621342686949614,
                    2.1765751766591905,
                    1.798225652211122,
                    2.0733274601618303,
                    -1.0149343373103157,
                    1.1280519484685194,
                    0.0064839422871831335,
                    0.6180795506642691,
                    -0.6027746177976453,
                    -1.0235532132443752,
                    2.4976773318308894,
                    0.8503835723919163,
                    2.7482845372960796
                ],
                [
                    0.8609592344698415,
                    -1.0677504394747483,
                    2.016275780261091,
                    1.3222972206557506,
                    -0.2822592698970886,
                    1.0460713820889824,
                    0.7833187131622036,
                    2.3860795373006543,
                    -1.235542983616251,
                    -1.7361240843315497,
                    -3.7258155430283555,
                    1.7650735418923438,
                    -1.3874099433388642,
                    -1.5540224655388726,
                    -0.40786423172475667,
                    -0.22952267435395543,
                    -0.8658845156012672,
                    -0.7461601280674215,
                    -1.1971125804814302,
                    3.5369439586081413,
                    3.4566172808484623,
                    2.11380254889863,
                    2.3226114389691204,
                    -1.5590980879016676,
                    0.45672657321111343,
                    -2.8790294409139277,
                    0.282719281672002,
                    -0.2189940451850818,
                    0.360371509568081,
                    -1.7784421736990588,
                    -0.061296450723377305,
                    -2.1616373114490814
                ],
                [
                    -0.39182372718235714,
                    -3.1314777839889274,
                    -1.3678526629562202,
                    -5.150660400012566,
                    -1.1726845141516922,
                    1.6638851244194444,
                    0.7918414473151341,
                    1.4063207495694954,
                    0.47665774247943105,
                    0.02406000419705774,
                    2.299001584390894,
                    0.21292219154659275,
                    0.49589742495521016,
                    -2.5011143598138377,
                    -2.7747127622213985,
                    -1.4623403544430702,
                    1.4103651236667982,
                    1.0852543346254548,
                    -2.6988446619960427,
                    -0.22560181364793694,
                    0.9276844054342734,
                    0.9846863680799611,
                    -0.01884618727766571,
                    -1.7059996468769214,
                    -1.5433958336860083,
                    1.2242669097859245,
                    -1.5082202073980944,
                    3.9801455254692555,
                    -0.35513679135717824,
                    -0.33322776170975893,
                    -5.844483868428222,
                    -2.534095238766572
                ],
                [
                    4.756161762290059,
                    -0.770128055845789,
                    0.6584004703247736,
                    -2.8265793256283605,
                    1.7656183056383095,
                    0.4873641820929319,
                    0.37592421674207677,
                    0.027217357628652784,
                    1.243841727290835,
                    -0.5952006697261449,
                    0.015083191198486598,
                    -1.3151620612901502,
                    -3.528328101576505,
                    -1.0471257459625491,
                    0.9480719613319973,
                    0.4924104126583387,
                    -3.115102834178261,
                    -1.0934963719893769,
                    0.07648251275434058,
                    -0.5734965151652727,
                    -1.5292097368556068,
                    -1.1340224453079455,
                    -5.88063007896023,
                    -0.4772699788200468,
                    1.1459373302046871,
                    0.8553422226830544,
                    0.018757763250388318,
                    1.6483136296824017,
                    -5.018464413473523,
                    1.2771606004820835,
                    -1.0190533574607135,
                    -0.8490204613358866
                ],
                [
                    1.3105805746029258,
                    -2.0488752043335863,
                    -1.1141705684778844,
                    -2.1336003402214705,
                    1.24097059883371,
                    -1.4182453452078545,
                    2.8795689987307074,
                    -1.478611895219965,
                    -4.443685385309726,
                    -1.893026736528304,
                    -0.2528839949863798,
                    1.7648415968460165,
                    -4.316890488706626,
                    2.1522632287975125,
                    2.933572021198614,
                    -3.5563774866107316,
                    -0.06327417030261166,
                    0.6602668094516797,
                    -1.2349814867086581,
                    0.9953255302105791,
                    -2.3181186795232933,
                    1.2917766513105993,
                    -3.6964139206760738,
                    -2.325663744624362,
                    -4.0247351178358,
                    0.027626799245449682,
                    -1.8936414399147499,
                    0.9724983275357625,
                    -0.15500889002783935,
                    2.4814234676075357,
                    3.4906504913695193,
                    -0.5781095528497151
                ]
            ],
            "B": [
                [
                    -0.24817226068284662,
                    0.09147772417649051,
                    0.09064832441027423,
                    -0.8697979284432907,
                    -1.0678049280204829,
                    1.1415036868915682,
                    0.39055555977331513,
                    0.6948648002075177,
                    1.4870865011347836,
                    -0.3670872474365368,
                    1.2159004027698181,
                    -2.5801071353655343,
                    -0.9645869815036805,
                    -3.1604906057967153,
                    -1.7819907905765202,
                    3.2903934400473416,
                    -3.282544481859692,
                    2.517353845117334,
                    -0.31893690148568277,
                    0.3661873526444377,
                    -1.3049943683773524,
                    -0.006179951355123106,
                    0.7369895781510928,
                    0.8076663701971623,
                    -1.435016472657959,
                    -1.884870653242185,
                    -2.0073308161694654,
                    0.9220425730961963,
                    -2.901836580492085,
                    3.109326021107771,
                    4.214330532082022,
                    1.770432488402278
                ]
            ]
        },
        {
            "W": [
                [
                    1.0018469007852515,
                    -0.3140590701958812,
                    0.45074598163937907,
                    -1.6177552818194858,
                    -0.754832125764208,
                    -6.314001515069513,
                    0.8211516070055052,
                    1.7776014060803167,
                    -1.4938862137563766,
                    -0.9806532747046289,
                    1.2953191014498768,
                    0.5597805581307984,
                    1.7007735801093833,
                    -4.117748311821265,
                    0.9799156096809112,
                    -2.626838330023436
                ],
                [
                    -0.7195294736017166,
                    -1.2825198410340903,
                    -0.3479827200233678,
                    1.3940317330066059,
                    -3.2748073868006538,
                    1.185232520233777,
                    -0.7959420373363669,
                    -2.9807453302670712,
                    1.904180829649786,
                    0.43090036742172183,
                    -2.072318580202522,
                    -2.8159863811206476,
                    1.4640827200910171,
                    -0.32335850938324023,
                    -0.4405297721919183,
                    2.8929726695845774
                ],
                [
                    -0.02405003080735408,
                    -0.544254746716766,
                    -3.70469840035946,
                    2.534220166729517,
                    1.0423909057994378,
                    0.7633112606393552,
                    -1.5064981630503593,
                    0.027881540056926554,
                    -1.1783865783322485,
                    0.5484853964720027,
                    -2.017404456793594,
                    -1.0212844738967732,
                    0.62360071642947,
                    -0.1946721876154703,
                    -0.1165705099444136,
                    -0.2544788469032932
                ],
                [
                    4.183513435669675,
                    -0.367556869813643,
                    0.3297698679534856,
                    -0.6214664633932301,
                    0.2112176793210055,
                    -1.7883258363685188,
                    -1.0695339442380647,
                    1.979653637920746,
                    -0.9330502075753286,
                    0.6256544137501115,
                    2.756177426953416,
                    2.898724534973149,
                    -0.44919511173253657,
                    0.7071067110540674,
                    -0.9470952324345363,
                    0.1255870613454381
                ],
                [
                    -3.663929355843465,
                    -0.2277733696694281,
                    3.046467543706614,
                    -2.380765295757378,
                    -1.7383041797543248,
                    2.5682870112568286,
                    1.6396533700273013,
                    -1.9517570666166337,
                    3.344459620970686,
                    1.653761181931249,
                    1.683666356247544,
                    2.5008965041992886,
                    -1.1306504572333966,
                    -1.823001914972809,
                    1.729348616160848,
                    0.455653748890897
                ],
                [
                    -3.521652844027088,
                    0.7311773480971868,
                    3.565940199230984,
                    1.8579096820580585,
                    -1.2520664606391096,
                    -0.35858972111467446,
                    -1.812047621665493,
                    2.5344405449778407,
                    2.23962949889478,
                    -0.4445391494838732,
                    -2.622932518821785,
                    2.2896982079341144,
                    1.396645923176516,
                    -1.045805872583278,
                    2.5789177199491466,
                    -4.532366152607003
                ],
                [
                    0.8398437450838325,
                    -2.0981104497740564,
                    1.9164352655812475,
                    0.4662983806985592,
                    1.367517680169272,
                    -5.331110204209502,
                    1.1969846559828705,
                    1.8757298516513508,
                    2.392290069627026,
                    1.6216102547654516,
                    0.3648958592342623,
                    0.5053192983274013,
                    0.2256458858683759,
                    -0.7909349554134372,
                    0.4130430131609194,
                    5.447373854009517
                ],
                [
                    0.09810260491396301,
                    4.477338213724536,
                    -2.0586563045537103,
                    3.2639778731241056,
                    2.251760088307087,
                    1.9494239888852798,
                    -0.7956460233449973,
                    -1.520001001624257,
                    0.3518904235580966,
                    3.1410226077870553,
                    1.5301208169943492,
                    0.2178058156933087,
                    -0.7085838763092711,
                    -1.0724595661919005,
                    4.2884830930575415,
                    -2.4878967402788135
                ],
                [
                    0.6169608187788844,
                    0.07232502592850817,
                    -0.5373662471555714,
                    -0.9276448998992177,
                    0.24375713916045483,
                    -1.4796051364813954,
                    0.04556369792561188,
                    1.7506273487663382,
                    0.6412479644266187,
                    -3.3319291048604334,
                    2.28628429313532,
                    0.4531057905842423,
                    -1.5833140667979355,
                    0.38448428205325996,
                    0.23217018752594776,
                    1.6612109205601184
                ],
                [
                    -0.3494244454806022,
                    -5.562955779792944,
                    4.393086158996891,
                    -4.572287816647667,
                    1.5247948767260486,
                    -1.9468287362753438,
                    0.20831324081108374,
                    -0.15238851032403705,
                    -1.2884897217290043,
                    -1.4623710779496724,
                    0.22746667859771624,
                    -1.1735058441842168,
                    0.6557579853528649,
                    -0.9899921169801713,
                    -0.3361050610721376,
                    0.4265342480560627
                ],
                [
                    -0.9255272443255966,
                    1.3637832495972766,
                    2.25638226710268,
                    -0.4699587769433613,
                    5.99935285878743,
                    -1.5324856952475547,
                    1.2699673819823345,
                    -0.9342649057117184,
                    -2.0763973398807924,
                    -0.540368931761831,
                    0.15007764088143938,
                    0.41602993495291696,
                    0.7003493460074309,
                    -2.506792593308387,
                    -1.550202682755021,
                    -0.6118340258900005
                ],
                [
                    0.5556867764398135,
                    -1.2870592357872284,
                    -1.9845439249785555,
                    -2.9468268818034633,
                    -1.218924017129004,
                    0.3933622256150722,
                    2.7606518844210512,
                    -2.5607945205788423,
                    0.044730447782528784,
                    0.6966015480605983,
                    -1.2242947452322799,
                    0.49420600505771095,
                    -1.6600361485079425,
                    -3.5731304044902967,
                    2.078763617109618,
                    1.837944788812692
                ],
                [
                    -0.5066946002517277,
                    -2.480067339822664,
                    1.3971214962765035,
                    3.550002919492557,
                    -0.5523941986111023,
                    3.4085688448484364,
                    -2.0824180246132795,
                    2.1778696926531977,
                    -0.24804588310172832,
                    2.2879386331177276,
                    0.9412435113729962,
                    -4.513322762159308,
                    -2.4897377535496004,
                    -0.3882215108477623,
                    -3.3875787450273487,
                    1.3979208982502411
                ],
                [
                    0.44646066909010385,
                    1.0531765880104391,
                    1.599084827685441,
                    3.3170978713592034,
                    -0.12238966276476955,
                    -1.8154740082735707,
                    1.099204631823321,
                    -2.468052508931991,
                    4.704708031820867,
                    -3.599623029239527,
                    0.3071913771722665,
                    -2.7890671089889514,
                    1.206177671172469,
                    3.1413115119845556,
                    -0.7651242274519467,
                    1.8587693453660572
                ],
                [
                    -4.061653364672207,
                    -0.593760131374172,
                    1.8426263311929474,
                    0.16357950356103573,
                    1.054350212470405,
                    0.03724542902997753,
                    -0.9258364824102426,
                    0.09328301122881323,
                    1.6592499387505586,
                    -0.6520473124280275,
                    -2.8948522047998426,
                    1.0599353924291683,
                    0.9010986332082404,
                    -1.2225666890164375,
                    0.3100473427292994,
                    -1.1602354242576345
                ],
                [
                    0.2404165130895745,
                    0.5641512143542846,
                    1.4670398248125587,
                    -1.3342495644382881,
                    -2.469604850855999,
                    0.9937480150721816,
                    4.453136186889442,
                    -3.413160303967473,
                    -4.271286999697265,
                    0.5338691209699044,
                    -2.224088676496601,
                    -1.2020732359764494,
                    -0.3010227458013716,
                    1.3752825088914644,
                    -3.5188448701856636,
                    -5.727480014354134
                ],
                [
                    -0.2272019422855336,
                    1.2184333536901657,
                    0.3703182305016847,
                    -0.12974768343612988,
                    0.8044174701982834,
                    -1.7984563440013415,
                    -0.018102888198552235,
                    1.566270927588391,
                    0.6631976022885863,
                    1.2651550592574123,
                    -0.46550090670501265,
                    -0.5399206180619296,
                    -1.3989662841010386,
                    3.0774903029628358,
                    0.04999039765486896,
                    -3.761119780538728
                ],
                [
                    -0.48391908816548884,
                    -0.5915896222661643,
                    -1.3512525276278193,
                    3.58452333827515,
                    -1.0477463326776892,
                    -3.107207269240155,
                    -2.907940395667299,
                    -2.7992556485635043,
                    1.2239644346234209,
                    -0.6772551470693559,
                    -1.0557715340011493,
                    1.6343126255748908,
                    -2.951659962534319,
                    -0.05554527356949211,
                    -0.10375549113536695,
                    0.5636239280542595
                ],
                [
                    -3.0663899739132217,
                    0.36448583149846064,
                    2.0883851755465117,
                    -0.6690871176190544,
                    -0.8769920740066507,
                    -2.6779928630784102,
                    0.05666300685195273,
                    -2.99554882991883,
                    1.0825288409093912,
                    3.2672263370959502,
                    8.664640239088694,
                    0.38514453790841574,
                    -0.9094300107591827,
                    -4.351827603754037,
                    -0.21519954151126777,
                    -0.26176872868198336
                ],
                [
                    -0.7548031274176908,
                    0.019492294745396658,
                    0.9135053443833444,
                    1.532516950506953,
                    1.0022343338041049,
                    1.266226158848355,
                    0.6845265141933806,
                    0.5556986479168516,
                    -2.3511248338233273,
                    -2.1224317486877693,
                    -0.9288688125893757,
                    -0.7356777750567574,
                    -0.3151029933573501,
                    0.9533251429869871,
                    1.6900618214485885,
                    2.3886183375324292
                ],
                [
                    -1.335136850513197,
                    2.3886660860389237,
                    -0.34119093328594163,
                    1.0771023896104333,
                    -6.547606447996314,
                    1.8963599887924714,
                    -2.923549374360567,
                    -0.3852566696588602,
                    1.151863421834292,
                    -1.251783765087416,
                    -1.7737968243770343,
                    -2.8911294573419037,
                    -2.963598738239486,
                    -0.7353796068396338,
                    -1.913424430865574,
                    -3.5600856189244396
                ],
                [
                    -2.9012538198374576,
                    1.4294748701491573,
                    -0.007239735563026359,
                    1.1244403493476143,
                    0.6922680895074205,
                    -3.1900697384618817,
                    -2.4631899779239337,
                    -0.570515017142066,
                    -1.4189597785154664,
                    -1.6077128355590458,
                    1.027245570676402,
                    1.382711818724417,
                    -3.1832328731985355,
                    -0.2577500601704995,
                    1.135349888738086,
                    -2.80735779933415
                ],
                [
                    1.554066496816651,
                    -0.11801982292417529,
                    -1.750285646437125,
                    0.39435247095106785,
                    -0.7838393223623171,
                    -1.1630870795961956,
                    -0.6018009158643336,
                    1.1045997665779066,
                    0.29959972701207677,
                    4.3328757969881435,
                    0.3907159814789049,
                    0.8104576285191577,
                    -0.6265659338587657,
                    -2.6600522937374427,
                    -2.815087030130241,
                    -2.6436892774569185
                ],
                [
                    -2.6678411887453404,
                    -0.09982770135272465,
                    1.3794763109780042,
                    0.772743853771852,
                    -0.7465287584450512,
                    -0.5455318647970391,
                    0.220367807614959,
                    -0.9762067751294454,
                    1.5967304789063128,
                    -0.9902441224342914,
                    1.7442020005626901,
                    4.244555928834202,
                    -3.53282913430218,
                    -1.0349791406658824,
                    3.695397525421817,
                    -0.6483691499797424
                ],
                [
                    1.5277366996757609,
                    -0.22235487059019307,
                    0.5663792916386781,
                    1.3516376967372739,
                    2.864812141764136,
                    -0.7451024712935245,
                    1.3154433731053865,
                    0.19517200134668153,
                    -2.0294096346466732,
                    0.8745995599912181,
                    -2.1089155784376965,
                    0.5134646641197996,
                    -3.8107144671362816,
                    1.6706129251593318,
                    -0.12220960539642249,
                    -2.706797331740552
                ],
                [
                    0.3686866921623861,
                    0.8934035616464264,
                    -0.8953440957738443,
                    -0.04890439029125034,
                    1.8276693788967178,
                    2.942497663352088,
                    3.5670902296105043,
                    1.571617484409041,
                    3.075784264235019,
                    -2.097311283153355,
                    0.5245015686154707,
                    -2.4339929131984777,
                    7.515928396968545,
                    -5.542329331119693,
                    -1.3597660810109906,
                    2.5937913652314677
                ],
                [
                    0.8167886507865971,
                    1.8848159100481998,
                    -0.6665303610349225,
                    2.964570076175599,
                    -1.2349496707126995,
                    -0.4506517272402985,
                    0.5050784617923941,
                    -2.421630042456606,
                    1.2993544347915353,
                    0.4762241656090997,
                    -0.3701241883762415,
                    -0.1565807880417366,
                    -0.711112406995517,
                    -1.7720035048366976,
                    0.2721551740883,
                    -2.365603991261181
                ],
                [
                    -0.677043589033322,
                    1.7983676253479595,
                    1.408407167511074,
                    3.2253525714022753,
                    -3.4056373175644965,
                    -0.26117913449743174,
                    1.9990159853294327,
                    1.9911463862813101,
                    -0.42943605661170825,
                    2.0636174132655967,
                    -1.6717897416148173,
                    2.1453311060263074,
                    0.5521616032816115,
                    -0.4805118438174161,
                    -5.984339794591967,
                    -3.205793370970936
                ],
                [
                    -1.5555945197386114,
                    -1.109708449301824,
                    0.979177086743921,
                    -0.5371835190024735,
                    -4.9012347392361,
                    0.053436707762234914,
                    0.7549865777500199,
                    0.005087371869094578,
                    -2.3944653690113085,
                    1.599779606031141,
                    3.714134842023328,
                    0.6676509631329529,
                    0.3123353434281066,
                    1.8367380554253132,
                    -2.4915611516371663,
                    -0.01027705147935648
                ],
                [
                    -0.8222168514372884,
                    1.1029932364739525,
                    0.9097036067333668,
                    -1.645945073170524,
                    0.6800757563374334,
                    2.787667256053507,
                    1.813738778888471,
                    1.2841777200141493,
                    -1.3963402488379737,
                    -0.2749062603261978,
                    1.996030420614267,
                    0.8992120117622584,
                    3.3703202282703923,
                    0.22954393126199052,
                    -0.6634279580382325,
                    -0.7546433857286519
                ],
                [
                    -3.1155393056386074,
                    -0.03533459035694892,
                    -3.6992921606985467,
                    -0.19737389275339032,
                    0.2601411621592245,
                    0.18223237990548602,
                    0.6429610342487906,
                    0.9421859825745938,
                    -1.2707707585548187,
                    -4.1775932972328995,
                    2.2150697240869395,
                    1.015332285703485,
                    -0.38523802816079344,
                    -0.5179959404554002,
                    -1.7664842392227285,
                    -0.2715048874373863
                ],
                [
                    1.0791434356591734,
                    -0.9497057962757812,
                    -1.6916115919792656,
                    1.3706745626025034,
                    2.189446032644892,
                    3.5039861688236225,
                    0.9524818778705375,
                    3.2026616483087134,
                    -1.9806013740520003,
                    -1.4595960072258314,
                    2.4584280022020537,
                    -0.07953480307137796,
                    -3.3789557907585017,
                    -0.25751843175506034,
                    1.8184680738826215,
                    -0.18709575224097125
                ]
            ],
            "B": [
                [
                    -0.6774040865571551,
                    0.14065656641319618,
                    -1.9447745040834374,
                    1.0182030220046734,
                    0.04413731316847027,
                    3.161290165275505,
                    0.8264433879740696,
                    -2.8031432386591364,
                    -1.9271774191436304,
                    -0.3303231279740268,
                    0.3918621799478113,
                    -2.9821197743547097,
                    -1.1309930605177376,
                    -0.750879757727456,
                    1.439155023784516,
                    -1.5669102759283198
                ]
            ]
        },
        {
            "W": [
                [
                    -0.27487691812867515,
                    -1.2261855202949965
                ],
                [
                    -1.9429265550966985,
                    -1.5447332859289755
                ],
                [
                    4.627716421393422,
                    -1.6705014028255072
                ],
                [
                    6.03666737450082,
                    -0.18042098540892426
                ],
                [
                    2.2791572620443676,
                    -0.4788464941873171
                ],
                [
                    -0.2654793196662208,
                    0.4009935941176711
                ],
                [
                    -2.5289229224714744,
                    -1.3600165136588578
                ],
                [
                    3.3569875486957286,
                    -1.9586570463026483
                ],
                [
                    -6.203794407174646,
                    0.344197330766026
                ],
                [
                    -0.6851643942122875,
                    0.1047530813749511
                ],
                [
                    0.8466008747624437,
                    0.3396283716157189
                ],
                [
                    0.9043824796118326,
                    5.05731270231364
                ],
                [
                    -0.37415160991459395,
                    0.36842479861584687
                ],
                [
                    0.8581031277165528,
                    0.4638452384522374
                ],
                [
                    -0.7564088242245801,
                    0.8334042472449872
                ],
                [
                    -0.06612936850666974,
                    0.01794251279152206
                ]
            ],
            "B": [
                [
                    2.5981865857073463,
                    0.631438968038315
                ]
            ]
        }
    ]
}